<?xml version="1.0"?>
<opencv_storage>
<!-- Created using Computer Vision System Toolbox(tm) for MATLAB(R) -->
<!-- Version 9.1.0.441655 (R2016b) -->
<!-- Compatible with OpenCV 2.4 -->
<cascade>
  <stageType>BOOST</stageType>
  <featureType>HOG</featureType>
  <height>32</height>
  <width>32</width>
  <stageParams>
    <boostType>GAB</boostType>
    <minHitRate>8.9999997615814209e-01</minHitRate>
    <maxFalseAlarm>1.0000000149011612e-01</maxFalseAlarm>
    <weightTrimRate>9.4999999999999996e-01</weightTrimRate>
    <maxDepth>1</maxDepth>
    <maxWeakCount>100</maxWeakCount></stageParams>
  <featureParams>
    <maxCatCount>0</maxCatCount>
    <featSize>36</featSize></featureParams>
  <stageNum>5</stageNum>
  <stages>
    <!-- stage 0 -->
    <_>
      <maxWeakCount>1</maxWeakCount>
      <stageThreshold>8.8108110427856445e-01</stageThreshold>
      <weakClassifiers>
        <_>
          <internalNodes>
            0 -1 2 6.4257860183715820e-02</internalNodes>
          <leafValues>
            -8.8949525356292725e-01 8.8108110427856445e-01</leafValues></_></weakClassifiers></_>
    <!-- stage 1 -->
    <_>
      <maxWeakCount>1</maxWeakCount>
      <stageThreshold>9.0984743833541870e-01</stageThreshold>
      <weakClassifiers>
        <_>
          <internalNodes>
            0 -1 5 6.0718990862369537e-02</internalNodes>
          <leafValues>
            -8.7234044075012207e-01 9.0984743833541870e-01</leafValues></_></weakClassifiers></_>
    <!-- stage 2 -->
    <_>
      <maxWeakCount>1</maxWeakCount>
      <stageThreshold>9.7325825691223145e-01</stageThreshold>
      <weakClassifiers>
        <_>
          <internalNodes>
            0 -1 6 1.1097584851086140e-02</internalNodes>
          <leafValues>
            9.7325825691223145e-01 -9.0688526630401611e-01</leafValues></_></weakClassifiers></_>
    <!-- stage 3 -->
    <_>
      <maxWeakCount>3</maxWeakCount>
      <stageThreshold>8.6221474409103394e-01</stageThreshold>
      <weakClassifiers>
        <_>
          <internalNodes>
            0 -1 0 3.3329527825117111e-02</internalNodes>
          <leafValues>
            -9.2560172080993652e-01 8.0571430921554565e-01</leafValues></_>
        <_>
          <internalNodes>
            0 -1 3 6.9147691130638123e-02</internalNodes>
          <leafValues>
            -7.8374356031417847e-01 9.3846100568771362e-01</leafValues></_>
        <_>
          <internalNodes>
            0 -1 1 2.1835152059793472e-02</internalNodes>
          <leafValues>
            -8.4018218517303467e-01 8.4024399518966675e-01</leafValues></_></weakClassifiers></_>
    <!-- stage 4 -->
    <_>
      <maxWeakCount>3</maxWeakCount>
      <stageThreshold>8.6852586269378662e-01</stageThreshold>
      <weakClassifiers>
        <_>
          <internalNodes>
            0 -1 8 4.6682089567184448e-02</internalNodes>
          <leafValues>
            -8.9023053646087646e-01 8.5649055242538452e-01</leafValues></_>
        <_>
          <internalNodes>
            0 -1 7 4.3637234717607498e-02</internalNodes>
          <leafValues>
            -7.2284662723541260e-01 8.6558675765991211e-01</leafValues></_>
        <_>
          <internalNodes>
            0 -1 4 6.2531158328056335e-02</internalNodes>
          <leafValues>
            -8.2215410470962524e-01 7.3488199710845947e-01</leafValues></_></weakClassifiers></_></stages>
  <features>
    <_>
      <rect>
        0 4 8 8 28</rect></_>
    <_>
      <rect>
        4 12 8 8 11</rect></_>
    <_>
      <rect>
        4 16 8 8 6</rect></_>
    <_>
      <rect>
        12 4 8 8 15</rect></_>
    <_>
      <rect>
        12 16 8 8 17</rect></_>
    <_>
      <rect>
        16 16 8 8 7</rect></_>
    <_>
      <rect>
        0 0 8 16 4</rect></_>
    <_>
      <rect>
        4 0 8 16 0</rect></_>
    <_>
      <rect>
        12 0 8 16 15</rect></_></features></cascade>
</opencv_storage>
